100 10
1 49955.155680 56455.304215 58650.663645 60584.251997 62947.187618 63969.303818 64863.145722 68512.860610 69332.652401 70307.086129
2 40067.582545 44570.216513 55387.832527 55461.979995 55651.361789 55676.331892 56125.031563 57781.712081 59089.979734 60640.559381
3 35775.694682 42987.496822 43456.003072 50361.329341 51843.343488 54579.617413 55900.551151 58409.706351 58654.211460 62821.429544
4 29397.379050 37862.684664 39525.478707 39990.900803 43792.474822 43895.099852 44709.373257 44803.309900 45143.662722 46345.417476
5 73761.832542 78599.500017 80093.465738 80235.963570 83148.845897 83613.111783 88096.078551 90343.098320 90735.835677 90858.197511
6 37603.631088 37716.356200 42278.775290 43960.395233 44409.004796 46303.340603 47157.003382 48853.687415 50111.322493 50189.756405
7 84420.124893 89511.518030 96142.356290 97302.542963 97811.345487 98095.591017 100009.298773 100748.835710 102281.421583 102329.461354
8 69458.394979 70826.721878 72774.042714 73840.135868 73984.125953 75039.858449 76380.844974 79211.526314 79343.980805 79862.953270
9 74982.009729 76722.525936 85724.245106 87689.215928 87769.635051 88029.831614 89504.681157 89577.215390 89766.024475 90156.364057
10 76455.361323 76597.436609 76743.178355 78169.797045 79176.121306 79291.482033 80523.237249 81262.885409 81373.656480 82575.104529
11 54129.865592 55682.716017 57510.836892 57708.034527 59862.435809 60158.008212 61199.165860 62718.947895 63296.945440 63738.637254
12 56680.061988 68798.974396 70501.837501 70798.505203 72074.088624 73592.194770 74708.886941 77261.178842 77283.001572 77639.800187
13 49500.340544 55893.776040 61049.046536 64740.914691 64814.160459 67558.423094 67832.690895 69113.682734 71984.171691 72789.271071
14 76926.272697 77584.908823 78244.737261 79264.461293 82214.179337 82833.316184 83668.521165 84077.823319 84644.781168 86050.549981
15 55495.269600 57548.029471 60867.926825 60924.950390 66738.777514 67851.495061 70535.306464 71454.851830 71692.939255 73895.955410
16 83192.527188 84134.322806 88158.150241 88409.331453 89877.267320 91196.076007 95956.897970 95984.056015 96074.508992 96550.550107
17 108350.417313 108352.106865 112035.673149 112474.436113 112632.568327 113807.644488 114182.854956 114519.321811 114585.606662 115125.021837
18 66643.921906 82565.434965 84635.467843 86878.163315 86913.404628 87581.159104 89015.522270 89167.911409 89529.208418 89542.851205
19 76147.306985 84964.407472 85643.718701 86363.080677 86405.723144 87799.576178 88793.122831 89631.382908 89818.936105 89865.097930
20 29460.537979 33029.072376 33243.056719 34102.309145 34286.459033 34474.698200 35134.556650 35259.212541 35466.096458 35505.954529
21 55688.014150 57946.944337 59668.362454 60846.669531 61676.098798 62106.899576 62646.267119 62867.975051 64963.330433 65786.982823
22 71424.750766 76807.351998 82547.193417 85022.324492 86769.267532 88288.916632 88719.359956 89281.720621 92296.029573 93917.284778
23 100892.265705 101112.343831 102218.241180 102752.445460 103854.078485 103969.514945 106732.918437 107276.315527 107298.411936 107516.100306
24 55989.471555 61036.812490 62950.025798 63393.744266 63608.074149 65016.395894 66975.964652 68014.803653 73287.460674 74073.084660
25 47013.064705 53143.268548 58573.061957 60352.189977 60405.374272 60449.777882 60457.860060 60608.720099 61588.751189 63562.420077
26 42748.024481 61406.619016 62003.815737 65636.403809 66855.342352 68158.420294 69435.181364 69436.395788 70037.833926 70693.359243
27 91291.721459 92320.204338 93518.900464 93845.823178 95315.109448 96518.877148 97357.093732 97606.519844 98615.256771 98621.688416
28 35878.998147 36557.988265 40678.046266 41374.930369 42489.352631 43939.172079 44870.820518 45613.146307 49100.870461 49742.203168
29 88497.999232 93422.436192 95390.186791 96427.506475 98092.106191 98191.491897 99150.510962 99481.272429 99549.889819 99574.039051
30 41352.598939 42101.837656 42990.648448 46155.451054 46884.398194 47738.440423 48523.865654 50255.591987 50793.966177 52529.226998
31 83878.660719 86023.414353 87066.107815 87083.165388 87841.600896 88034.904941 88546.167879 90140.323946 90944.952647 91726.240302
32 47629.620826 67119.465053 68885.178159 72309.861451 75049.332229 75335.672440 75541.880563 82336.774864 84003.212587 86633.842285
33 94029.717733 96688.975282 97135.907841 98515.773635 98878.030047 100638.516141 101930.246797 101964.606830 102275.723796 102442.185158
34 87123.927425 95023.656997 98927.534024 101031.342884 103183.715624 106696.140685 108135.624782 108478.638372 112284.881725 112836.488704
35 48160.744409 52454.805500 53593.766158 56003.004098 57695.462907 59569.755950 59889.740749 60528.830279 60594.955805 60813.662462
36 35735.249852 36584.682765 37477.449286 38451.136979 40768.521840 42682.302890 42724.664212 42868.774475 45020.548197 45210.620898
37 105759.641664 107759.199199 110266.182876 111142.261975 112249.826062 113429.150491 115024.255246 115076.406048 115191.499200 115588.545890
38 45697.952744 78101.126215 84568.669376 84893.073687 86457.924854 86746.472090 87712.439899 88879.841230 89244.737755 89840.550137
39 74403.222558 89452.504409 90517.097402 90637.061002 91936.340617 92993.201467 93684.230455 94632.906269 94750.847184 96239.605335
40 87614.058398 89150.583890 95740.675238 98972.231535 99562.651386 104224.072335 106017.426332 109078.162599 110040.909416 110427.254752
41 65422.869021 71243.588820 73808.679151 78709.041704 79195.477339 80286.310763 81196.605994 82045.809942 82627.693433 82909.388956
42 46079.311225 48590.490201 50648.223888 51904.241898 52004.457770 52327.868130 54293.040585 56149.425064 56604.243489 56657.173429
43 59626.945427 62071.672710 64201.444283 66926.353322 71172.251939 72928.915370 73362.363491 74067.809931 74091.844740 74628.871283
44 47001.830901 48398.864770 54508.592644 55553.349188 55927.748453 56456.799573 57794.123914 58084.578237 58555.846267 58652.890696
45 40239.826888 40943.943875 47488.364922 48254.628079 48619.758021 49979.689805 52234.400092 55803.716104 55918.985872 55941.626862
46 53034.043642 53363.727578 56838.981113 57270.332739 64505.803437 65502.987863 66796.443940 67578.718655 68972.237719 69724.079406
47 89093.348910 90182.291094 93255.495479 94263.777868 94599.955550 95213.800665 95487.751036 95607.806773 96102.641899 96878.426649
48 59617.215660 65078.395201 66307.435986 66962.722772 71385.123730 72543.368450 73303.698774 74166.588886 75791.687024 76132.887210
49 66161.460557 67721.420053 72895.004040 73023.925709 73483.489016 76216.182324 78071.015934 78236.484743 79175.347779 80011.632611
50 82943.924081 85822.621592 86305.072134 86378.718629 88010.005539 88378.278830 89292.033004 89672.103522 90102.768148 90137.692166
51 42530.865239 48188.318647 53713.420855 55277.704538 56802.635194 57157.695545 58099.906583 58162.922872 58344.289481 63636.723902
52 80134.389434 80731.015490 86263.947075 87809.955216 88299.856557 89499.886844 91295.097223 92751.738059 96497.757223 96865.230026
53 81850.825866 85616.924787 86820.999994 86935.828448 87467.079333 87742.404634 89005.699318 89085.056452 89968.043499 90487.748276
54 65839.512992 76278.344837 76475.958386 77563.042172 77626.624679 78061.585687 78962.426558 79311.626682 82390.536884 82815.057423
55 46623.346255 51593.327059 51777.435694 52181.591342 53040.871401 53988.286470 54749.623149 57735.342027 57790.501036 58351.161034
56 70626.214347 73205.324424 74201.036442 74756.277583 76171.341855 77504.605070 78627.139297 80537.709249 81221.306835 81776.150392
57 77837.972655 80710.505877 81449.545100 81965.234319 82096.399763 83394.431277 84996.091898 86561.528181 87871.163416 88285.000583
58 35397.786456 35751.471214 36100.802360 38547.073988 40122.453489 40141.064062 41836.050662 42331.508844 42561.549361 42982.829037
59 52250.413568 52350.707798 55770.235350 58888.380484 66092.643161 68816.647928 69686.678182 70645.858860 74991.151798 75033.043181
60 33032.626947 39381.690238 41436.512812 42239.985204 44340.773933 45408.338739 45879.389174 45898.703740 47340.398953 47747.407919
61 45503.254422 54336.473919 54407.688170 57497.112510 57554.520439 58903.904361 60183.936611 60861.527963 61053.437029 63013.646974
62 47263.493978 48158.967971 49461.275529 49532.176936 50233.831249 50881.452750 50889.371837 53104.248088 53438.368903 54352.330585
63 44947.909940 49146.301112 49396.910349 49873.787955 50338.928038 50963.350410 51523.748786 54728.665953 55666.185059 55801.085644
64 114277.395901 117236.697305 118748.685845 119617.169650 120688.925420 122042.805273 122364.244242 122605.678058 123295.382395 123471.305379
65 50865.931831 55147.396049 57978.122995 58296.725534 59863.364540 60698.746058 61247.403512 61933.052920 62032.939000 62254.401756
66 72919.210960 77226.439540 77709.796886 82769.461711 83125.910575 84202.516987 84334.749487 84492.004243 84668.465966 84713.659737
67 57184.614373 67451.608661 67777.713668 71294.222690 71339.183700 72176.383949 73288.525425 73344.692282 73948.510607 75066.856541
68 56241.840457 61814.719428 62254.908626 63976.524218 66039.254902 68279.289510 68501.611412 69753.781152 70674.622305 70878.573236
69 47615.662749 53606.365256 54482.945570 55442.571441 59296.908570 59724.066439 60100.926948 61609.778591 62402.487130 64625.982832
70 67248.012194 69424.805596 70781.807507 71227.463643 72803.921405 73748.784071 73997.006885 74287.162740 74808.734376 75175.677503
71 66568.749192 72113.903181 73141.461846 73980.766149 74822.635626 75128.864293 76021.271924 76721.519465 77926.950832 78186.445737
72 114385.297578 114960.836444 118048.953409 118243.081062 118752.585686 118782.106253 118887.611428 119983.880676 120138.061205 120687.816465
73 101575.349495 104612.490344 104957.033490 106586.527315 107159.301388 108379.575405 108771.472345 109650.454144 110604.460692 110905.927290
74 61223.720942 61565.059847 61952.390478 63043.271727 64423.814471 64809.529793 64837.103097 67507.580959 67574.185840 67713.988547
75 46137.791733 51766.973004 52217.717051 53145.639859 54502.792195 54717.897556 55691.270788 56427.122840 57640.400701 58049.835461
76 47563.349829 48627.849048 50057.046077 50115.102015 50460.402377 51576.755530 52335.204499 52542.404208 53249.631482 53645.662882
77 48010.949574 56574.933478 57952.321092 59449.931573 60483.111602 63378.887944 64871.525818 65901.629889 66012.467459 66015.801616
78 29656.554790 38603.868278 42546.303365 44635.995945 45004.387042 45144.754789 46237.352195 47529.958994 48094.407045 48305.850391
79 43361.656518 58816.528782 65364.684433 65798.644424 68960.371236 69863.960022 70098.358055 72527.482881 73556.374115 75848.016243
80 63650.335859 66790.835105 67044.390862 67084.394228 67172.745485 67815.351898 68307.950694 73716.459593 73952.859701 74735.142222
81 78869.713458 83207.260543 84400.749576 85003.055045 85239.896416 86251.503175 87341.373758 88020.699730 89019.004932 89092.588031
82 69469.420820 69788.975820 70563.409130 74213.666942 74939.131026 75777.432722 77259.132962 77445.481895 77467.613504 77860.090098
83 76722.747579 77398.383814 86314.924619 86763.533578 87217.440079 87657.870913 88687.090413 89097.550370 95101.828011 96469.399485
84 67481.658716 77503.269131 79226.593673 81562.662781 85027.409304 88388.399131 89414.171220 89664.631004 89819.555888 90752.130443
85 82271.670835 84569.317852 87401.197869 89958.628085 92419.928100 95720.741326 96656.914978 96972.035026 97375.234778 97455.660769
86 51750.222570 53693.132028 58539.707404 60160.518357 61658.602384 61856.735219 63343.442415 63563.450772 63891.705283 63931.804088
87 42172.871304 42811.221146 49067.898804 52097.103250 56534.972035 56740.137733 58176.852287 62019.328326 63812.503156 64129.125419
88 52124.179312 54175.155856 57399.595025 57736.649773 59967.252872 62393.273748 62673.969772 62679.051963 62895.367492 65152.234528
89 41263.888632 47905.938411 52476.120464 53687.831964 54407.640419 56817.261013 57297.556484 60308.264044 60637.837709 61729.965965
90 63367.759926 63456.251568 64176.434725 66582.973785 66749.671490 67305.573291 67983.386809 68003.457184 68231.393786 68542.271359
91 105856.573244 110161.253002 110475.349612 115702.819062 117203.769026 117585.733437 118454.669043 118528.538492 118835.261888 118884.239754
92 50282.879283 53814.472524 54584.149604 55347.252091 55601.156499 56701.862659 58746.969224 60007.622624 61861.582400 63301.351163
93 95060.089738 95582.129522 100854.435277 101704.783767 107214.060678 108394.842852 109520.962893 110207.666512 110504.161632 110623.029280
94 28589.520300 38326.107016 38452.712674 39144.976076 39743.228920 42759.433228 43070.310319 43672.783710 43882.750153 44754.498735
95 59366.377555 59602.870753 60249.932556 60569.687972 61133.564382 66575.372586 72326.680568 72348.337555 73987.900024 79139.885481
96 56330.348250 67418.782442 71961.061881 79152.671698 79759.308228 84220.365530 84409.205090 85741.403692 86099.034611 86537.893186
97 80041.315225 80307.681824 83272.731881 85246.872752 86831.184058 90806.847330 91739.947831 93385.953665 94691.905768 96579.916007
98 52637.510788 53498.949747 55752.082365 55920.124428 56609.423191 57163.840494 57181.973908 57265.787683 59555.370572 59702.181987
99 56977.478173 58481.712295 62747.515823 64143.001808 71061.670400 71736.927290 71899.769249 71970.383999 72826.118289 73108.119200
100 52805.271650 59346.892463 62159.934918 62589.060466 65033.223148 66626.829146 71389.894579 71492.757151 72726.063340 73296.878760
